12 128
1 -0.003890 -0.003828 0.003682 -0.002689 0.001698 -0.003769 -0.000661 0.002724 0.003106 0.000217 -0.002324 -0.000734 0.002181 -0.001569 -0.001954 -0.002342 0.002219 -0.001675 0.003671 -0.001987 0.001495 -0.000346 0.000723 0.001429 0.000826 0.001048 0.002416 0.003582 0.001492 -0.002075 -0.003740 0.002297 -0.000282 0.000850 -0.001701 -0.003013 -0.003802 -0.001752 0.003528 -0.003899 -0.002656 -0.002873 0.002506 0.002231 -0.001284 -0.002663 -0.002340 0.000396 0.003489 0.003076 -0.003265 0.003371 -0.001374 0.003766 -0.003339 0.000822 -0.000379 0.003529 -0.002677 0.001727 0.001849 -0.003761 -0.002846 -0.000029 -0.002849 0.001024 0.000856 0.001834 -0.003454 0.000122 -0.000056 -0.003501 0.003563 -0.000138 -0.002605 -0.002263 0.002889 -0.002429 0.002127 -0.003642 -0.001456 -0.003301 0.000215 -0.002931 -0.001689 -0.003134 -0.001379 -0.000568 0.002761 0.000816 0.000584 0.000452 0.000519 -0.000247 -0.000716 -0.000869 -0.000421 -0.002641 0.003083 0.001471 -0.002478 0.002675 0.002223 -0.001017 0.002210 0.003491 0.002796 0.002110 -0.001646 0.000935 -0.001486 -0.002016 0.000996 0.003410 -0.001757 -0.001917 0.002950 0.001851 -0.003012 -0.001918 -0.000477 0.002304 -0.003205 0.000467 -0.001254 -0.000970 -0.001093 0.000865
7 0.003595 0.000372 -0.003442 -0.000911 -0.003083 0.002598 0.000765 0.000974 0.003618 -0.000804 -0.001754 0.000588 0.000850 -0.003852 0.002762 0.000688 0.000879 -0.000339 -0.002777 -0.000729 0.000953 -0.001851 0.000446 0.002935 0.003219 -0.002773 -0.003586 -0.002017 -0.002397 -0.001442 0.002642 0.003224 -0.002445 -0.003412 -0.002502 -0.000340 -0.002277 -0.003607 -0.001329 -0.002244 -0.003710 0.001214 0.001342 0.002295 0.000069 0.002060 0.001354 -0.000033 0.003009 0.000734 -0.002400 0.002907 -0.000077 0.003377 -0.002640 0.002200 0.000494 -0.002455 0.002871 0.003637 0.001359 0.000291 0.000854 0.001955 -0.001122 0.001478 0.001348 0.003731 0.000475 -0.002792 -0.001416 0.002659 -0.003007 0.001507 0.001141 0.001071 -0.000902 0.001894 0.000159 -0.002660 0.000555 0.003256 -0.000969 0.003667 -0.001290 -0.002898 -0.003055 0.000804 -0.002016 0.002366 0.003600 -0.000202 0.003015 -0.000781 -0.000800 0.002684 0.002875 -0.003506 -0.002799 0.000572 -0.001627 0.001265 -0.003483 -0.000978 -0.001061 -0.003211 -0.003158 0.000336 0.003380 0.000677 0.001528 0.003658 -0.001600 -0.002998 -0.002339 -0.000579 -0.000724 -0.002275 -0.003202 0.003613 -0.001851 0.003273 0.003033 0.001121 -0.002435 -0.002125 0.003372 0.003259
2 0.003007 -0.000517 -0.000700 -0.001060 -0.001072 0.000248 0.001557 0.002281 -0.003480 -0.000461 -0.001213 0.002050 0.002053 -0.002435 -0.000662 -0.002880 -0.001998 0.002103 -0.000589 -0.000288 0.000751 0.000885 0.002839 -0.000346 -0.002919 -0.000763 -0.001729 0.000467 0.002504 0.001424 0.002810 -0.001497 -0.003202 0.003208 -0.003256 0.002321 0.000528 -0.002893 0.001566 -0.001079 0.001736 0.002630 0.001767 -0.000665 -0.002370 -0.000794 -0.002064 -0.001147 0.001492 -0.001992 0.000793 -0.003241 0.001702 0.003720 -0.003827 -0.000094 0.002351 0.003333 -0.002233 0.003547 -0.002275 0.002058 -0.000578 -0.002872 -0.001113 0.003160 -0.000906 -0.001571 -0.003428 -0.001502 -0.001027 -0.000714 0.003210 -0.000550 -0.001463 0.002585 0.001394 -0.001656 0.000922 -0.001114 -0.001981 -0.002057 -0.003293 0.000553 0.002515 0.003136 -0.000785 -0.000429 0.003251 -0.002487 0.001854 0.002960 0.000029 -0.003791 -0.003763 0.000985 -0.001494 -0.001849 -0.002455 0.002884 0.002655 -0.002198 0.001709 -0.003769 -0.000404 -0.003275 0.003871 0.003538 -0.002770 0.000650 -0.002733 0.001626 0.001637 -0.001538 -0.002780 -0.000796 0.001118 0.001583 -0.002832 -0.001232 -0.001213 -0.001873 0.001286 -0.003422 0.001567 0.001654 0.003768 0.000295
5 0.000572 -0.003391 -0.003888 -0.000087 0.002911 -0.001198 0.003406 -0.003371 0.003644 -0.002640 0.002983 0.002890 -0.002816 0.000960 0.002100 -0.003346 -0.001965 -0.003086 -0.001196 0.001966 0.002111 0.003145 -0.003535 0.003894 0.001382 -0.002769 -0.000601 -0.003254 -0.001146 -0.000850 -0.002172 -0.001262 -0.002180 0.001503 0.002316 -0.002899 0.000878 0.001568 -0.000940 0.000211 0.003407 -0.000616 -0.002091 -0.000326 -0.002453 0.000373 0.000530 -0.000847 -0.000092 -0.001850 -0.000779 0.003174 0.003208 -0.003540 0.002312 -0.002267 0.002214 -0.001240 0.002623 -0.003689 -0.001495 -0.002456 0.002358 0.002756 -0.002906 0.000432 0.003109 -0.000827 0.001520 -0.002789 -0.001821 0.000548 -0.002534 -0.003167 0.000916 -0.002918 -0.002281 -0.003144 -0.003183 -0.003413 -0.002652 0.000405 -0.001484 -0.000003 -0.002255 -0.003761 0.002268 0.003530 0.001849 0.000032 0.002893 -0.001340 0.001563 0.001208 -0.002749 0.001050 -0.003166 -0.002475 0.003445 0.003638 -0.003839 0.000119 -0.001891 -0.003727 -0.003601 -0.001230 0.001315 -0.000093 -0.003088 -0.001174 -0.002395 0.000229 0.001207 -0.002735 -0.002308 0.003341 0.003496 0.000558 0.003313 0.001447 -0.000377 0.001620 0.000867 -0.003685 -0.003227 0.001962 -0.001715 0.003761
11 -0.003200 -0.002531 0.001463 0.001250 0.002030 -0.001551 -0.002826 0.003279 0.002622 -0.003165 -0.000649 0.000833 -0.002108 0.002341 0.003646 -0.003270 -0.001420 -0.000725 0.000487 -0.003123 0.002531 -0.001048 0.002375 0.000572 -0.001126 -0.002199 -0.001797 0.000346 -0.002603 -0.002799 0.002096 -0.000533 0.002290 -0.003643 0.001939 0.003475 0.003533 0.002463 0.000107 0.003532 0.002463 0.002774 0.003652 -0.000339 -0.001350 0.002234 0.002965 0.002738 -0.001429 0.001744 0.001626 0.000877 -0.000010 -0.000055 -0.000177 -0.002717 0.000861 0.002563 -0.003756 0.001132 -0.000255 -0.002310 0.003722 0.002697 -0.002957 0.001195 -0.003830 -0.000775 0.002583 -0.003408 0.000436 -0.000403 -0.002766 -0.001208 0.003640 0.001249 0.001054 -0.002724 -0.002641 -0.001268 0.001467 0.003540 -0.000776 -0.001079 -0.003406 -0.000366 0.003750 0.000259 0.001763 0.000691 -0.001442 -0.002872 0.001224 0.002904 0.001676 -0.002298 0.002044 -0.000624 -0.001164 0.003245 0.003418 0.003550 -0.001253 0.000912 -0.001313 -0.000539 0.001958 -0.002915 0.001715 -0.002485 -0.000293 0.003297 -0.003858 -0.002029 -0.000393 -0.001874 -0.002686 0.001931 -0.000900 -0.002145 0.001158 -0.002561 0.003668 -0.003636 -0.001262 -0.003572 -0.002303 0.000302
10 0.000807 -0.000388 -0.002003 0.000862 0.001684 0.003731 0.002232 -0.000190 0.003259 -0.002788 0.002141 0.002384 -0.002457 0.002982 -0.001506 0.003095 0.001309 0.002586 -0.002069 0.000890 0.001935 -0.000555 0.000651 0.003700 -0.001587 -0.000893 0.001491 -0.002668 -0.001061 -0.002426 -0.003056 -0.003270 0.001538 0.002931 -0.003089 -0.000663 0.002680 -0.003431 -0.002895 -0.003286 -0.002210 -0.001345 0.003296 0.003271 0.003173 0.003828 0.003827 -0.000878 0.003902 -0.003058 0.000375 0.001138 0.003100 -0.001639 -0.001231 0.002364 0.001675 -0.003516 -0.003428 0.001705 0.001382 -0.000144 -0.003697 0.000979 0.000330 0.001141 -0.001937 -0.002265 -0.003418 -0.002960 0.002749 -0.003065 0.003609 -0.000304 0.003573 0.001516 -0.000168 -0.001761 -0.003117 -0.000149 -0.003662 -0.002466 0.000232 0.002571 -0.003083 0.000886 -0.002835 -0.002618 -0.000094 -0.001790 0.003269 0.000800 0.003367 0.002926 0.000353 0.002421 -0.000546 -0.003419 0.000814 0.002432 -0.001496 -0.001512 -0.000130 0.001073 -0.001952 -0.000994 0.003519 0.003612 -0.002807 0.002005 0.003477 -0.003790 0.001918 -0.001335 0.001694 0.000261 0.001075 0.002891 -0.001053 -0.002948 -0.000274 -0.001558 0.000039 0.000345 0.003886 -0.001085 -0.002131 0.001058
6 0.001027 -0.000984 0.000904 0.003571 0.000424 0.001261 0.001917 0.002413 -0.000478 0.000416 0.001308 -0.000801 -0.001205 -0.001780 0.002130 0.000082 -0.001045 -0.002679 0.001807 -0.002582 -0.001322 -0.002429 -0.001046 -0.003231 0.002871 -0.002149 0.001280 -0.003603 0.000396 0.003306 0.000543 -0.002975 0.002122 -0.000713 0.001187 0.000174 0.000738 0.003264 -0.003568 -0.003908 -0.001801 0.002104 0.003625 -0.002439 -0.003577 0.001236 0.002438 -0.003538 0.003606 0.003031 -0.000222 0.002144 -0.003473 0.000230 0.002887 -0.002029 -0.000240 -0.001832 0.002563 -0.003441 0.003800 0.002335 0.000177 0.000147 0.000406 -0.003145 -0.002902 0.000359 -0.002512 -0.002662 0.002146 -0.000668 -0.002200 0.003569 0.002270 -0.000476 0.001879 0.003557 -0.000924 0.001205 -0.003298 0.002882 0.002062 0.001276 0.003671 -0.003751 0.002906 -0.001455 -0.001119 0.000209 0.002546 0.001344 0.001820 0.002411 -0.000012 0.001072 0.001296 -0.003849 0.002550 -0.001840 0.002808 -0.001635 0.000290 0.000353 -0.002442 0.002733 -0.000847 0.003635 0.002197 -0.001256 0.002770 0.001764 -0.000708 0.002074 0.000839 0.003435 0.001653 -0.002233 0.000240 -0.000755 0.000822 -0.001932 0.002581 -0.003837 -0.003372 0.001062 0.003773 -0.003658
8 0.000550 -0.003485 0.002077 0.000852 -0.002561 0.001376 0.001960 0.000763 -0.000212 0.002894 -0.001726 0.000012 -0.002461 0.000065 0.003041 -0.002486 0.002141 0.000165 0.003660 0.002416 -0.001187 -0.000146 -0.000606 -0.003591 0.001129 0.003881 -0.000214 0.002733 -0.001708 0.002336 -0.000959 0.000468 0.000936 0.002346 -0.001250 -0.001201 0.003333 -0.000912 0.003282 0.003604 -0.001110 0.000177 -0.002732 0.002772 0.001008 0.002775 -0.002540 -0.000563 -0.001577 0.002072 -0.002071 -0.002283 0.003886 0.002347 -0.002938 0.000071 -0.003573 -0.001253 -0.001921 -0.002283 -0.002252 -0.003214 0.000779 0.001196 0.001914 -0.002771 0.003092 -0.001501 -0.000256 -0.002818 -0.002813 -0.001581 -0.002031 -0.000087 -0.000677 0.001282 -0.002453 -0.000838 -0.000595 -0.000354 0.002314 -0.003375 -0.002396 0.001783 -0.003268 0.003751 0.002676 0.000813 0.001098 -0.002698 0.001840 -0.002388 -0.000609 -0.000275 -0.001202 -0.002736 -0.001185 -0.003497 -0.002521 -0.003117 0.002944 -0.003306 -0.003822 -0.001302 0.003027 -0.003082 0.001982 -0.003878 -0.001718 -0.002286 -0.003791 0.001891 0.001984 -0.000278 -0.003746 0.003161 -0.001595 -0.001130 -0.002110 -0.000144 -0.002064 -0.003238 0.003171 0.000765 0.001987 -0.003632 0.002595 -0.002433
12 -0.003740 -0.003145 0.000388 -0.002716 -0.002052 -0.001424 -0.002542 -0.003633 -0.002400 0.002601 0.003726 0.003887 -0.000942 0.001944 0.000207 0.002687 -0.003504 0.001188 0.002448 -0.003627 0.001431 0.003081 0.001474 -0.002014 -0.003591 -0.001577 0.002173 0.001123 0.000463 -0.000517 0.001731 0.001497 -0.003850 0.001117 0.001241 0.002775 -0.001129 0.002460 0.000063 0.001998 0.000090 -0.000221 0.001973 -0.001088 -0.001009 0.003662 0.001743 -0.000867 -0.003206 -0.001378 -0.001612 0.001767 -0.000740 -0.003790 -0.003140 -0.003279 0.000495 0.000513 -0.000093 0.001556 0.002557 0.001574 -0.002577 0.002171 -0.003147 0.000430 0.002339 -0.000422 0.003323 0.003701 0.003898 0.002088 0.001314 0.001198 0.000875 -0.000391 0.003553 0.003224 0.000655 0.003693 -0.000794 0.000995 -0.003164 -0.002121 -0.002878 0.003294 -0.000789 -0.000835 -0.002524 -0.003095 -0.000370 0.002823 -0.001457 -0.001243 0.001779 -0.002400 0.002655 -0.003673 0.001383 -0.000030 -0.003895 -0.003294 0.000389 0.000837 0.000261 -0.003828 0.000421 -0.000508 0.003657 -0.003385 -0.003329 -0.000272 -0.000026 0.002428 0.000983 0.002997 -0.001355 0.003288 -0.003702 -0.003312 -0.001672 -0.001890 0.001759 0.002584 -0.001444 0.000465 -0.003866 -0.000044
3 -0.003470 0.000797 0.003567 0.000647 0.001106 -0.000265 0.002076 -0.000033 -0.003688 -0.001422 0.001686 -0.002905 -0.003790 -0.003739 -0.001726 -0.002685 0.003669 -0.002814 -0.000651 -0.002161 -0.003174 0.001463 -0.000899 0.003709 0.003724 -0.001610 -0.000050 0.002715 0.003906 0.003517 -0.002026 -0.002322 -0.003391 0.003511 -0.001015 -0.003007 0.001136 0.002370 0.001245 0.002115 0.000711 -0.003798 0.000970 0.003270 -0.001810 -0.000731 0.002639 -0.002616 -0.003893 0.002714 0.003389 -0.001432 -0.003711 0.001003 -0.002428 -0.002358 -0.001916 0.001063 -0.001788 0.003615 -0.003554 0.001797 -0.001063 0.003581 0.000198 -0.002556 0.003490 0.002547 0.001058 -0.002896 0.002497 0.000819 -0.002310 0.002559 0.001611 -0.001578 0.003556 -0.000969 0.003575 -0.000862 -0.000328 0.002662 -0.001269 -0.001994 0.001456 0.001605 -0.000303 0.001156 -0.002444 -0.000922 -0.001652 0.001930 -0.001143 0.000642 -0.003312 0.002620 -0.003426 0.003158 0.003370 0.000295 -0.003440 0.000985 -0.003376 -0.001077 0.001743 0.003895 -0.000469 -0.000458 0.002896 -0.002009 0.002523 -0.000019 0.000758 0.000691 0.000854 0.001862 -0.000873 0.002159 0.003176 0.000366 -0.001882 -0.003370 -0.001408 -0.000735 -0.002642 0.000674 0.001168 0.001640
4 -0.000121 0.003732 0.000069 0.001639 0.002381 -0.002574 -0.003462 0.003868 0.000550 -0.002196 0.003459 0.000934 0.002686 -0.001012 -0.001027 -0.000877 0.000817 -0.002396 0.001138 0.002346 0.001353 -0.000800 -0.002373 -0.001455 0.001883 0.000875 -0.002523 0.002043 0.003278 -0.001595 -0.001938 -0.002584 -0.000509 -0.000450 -0.001670 -0.001099 0.002446 0.002263 0.001418 0.001928 0.001249 -0.003200 0.003253 0.003417 0.001657 -0.003197 -0.000921 -0.003146 -0.002584 -0.002466 0.002866 -0.003070 0.000838 0.001414 -0.001993 0.001436 0.001903 0.000526 0.001660 -0.001607 0.003768 -0.002053 0.001501 0.000334 0.002555 0.003602 -0.003828 0.001743 -0.000111 -0.001401 0.000520 0.001282 0.002689 -0.003534 0.002065 -0.001132 0.003552 0.002154 -0.001665 0.003099 0.001293 -0.003865 -0.000782 0.001129 0.002139 -0.000709 0.003804 -0.002150 0.002765 0.001287 -0.002860 -0.000755 -0.003568 -0.001375 -0.001219 0.001463 -0.003221 -0.001951 0.000347 -0.000264 -0.002575 0.001035 0.003875 0.003281 -0.003167 0.001908 -0.002423 0.001477 -0.001556 -0.001108 0.003216 -0.001139 0.000306 0.001136 -0.000018 0.002657 -0.000153 0.001356 -0.000589 -0.000145 0.001968 0.000968 -0.003619 -0.003895 -0.003592 0.000963 0.003480 0.002390
9 -0.001182 0.000541 -0.003281 -0.000925 0.000083 0.000032 -0.000519 0.001888 0.003718 -0.000578 0.000797 0.003068 0.000424 -0.003567 -0.001112 -0.000911 -0.001776 0.002671 -0.001892 0.001290 -0.003593 0.003288 0.003774 -0.003625 -0.001484 0.002433 -0.001532 -0.003734 -0.000915 0.001902 0.001279 0.003358 -0.002068 -0.002195 0.003646 -0.002132 0.003048 -0.000089 -0.003547 0.002859 -0.003350 -0.003484 0.001445 0.003097 -0.002784 -0.002093 0.000208 -0.002169 -0.001840 -0.003715 -0.002475 0.000866 -0.002418 0.000803 0.003364 -0.001178 -0.001661 -0.000246 -0.000799 -0.002236 0.000179 -0.000298 -0.002862 0.001640 0.002118 -0.001634 0.001809 -0.000123 -0.001210 0.000330 0.001616 0.003131 0.003454 -0.001476 0.003092 -0.001846 -0.002660 0.003641 -0.002965 0.002300 0.002755 -0.001000 -0.003426 -0.003746 -0.001416 -0.000425 0.000244 0.000190 -0.002185 0.001472 0.001987 -0.001346 0.003718 0.003601 -0.000668 -0.003784 0.002100 0.000136 -0.000134 0.001751 -0.003376 -0.003209 -0.002942 0.000937 0.000767 0.000065 -0.001808 0.003238 -0.003870 -0.003031 0.002923 0.000394 0.003419 -0.001340 -0.000095 -0.002230 -0.003250 0.003185 -0.001536 0.002789 -0.001577 -0.002038 -0.001550 0.000967 -0.002176 0.003214 0.000252 0.001559
