9 128
7 0.0035909512 0.00037082107 -0.0034394464 -0.00091223395 -0.0030812118 0.0025953522 0.0007635889 0.0009731304 0.0036156615 -0.00080293306 -0.0017532789 0.0005882049 0.00084941316 -0.0038498337 0.0027601542 0.000687859 0.0008786371 -0.00033871873 -0.0027750582 -0.0007294344 0.000952795 -0.0018492498 0.00044666807 0.0029333173 0.0032157775 -0.0027715736 -0.0035833672 -0.0020143453 -0.002395784 -0.001442008 0.002640087 0.0032227815 -0.002444426 -0.0034099582 -0.0025002782 -0.00033959822 -0.0022766057 -0.003605645 -0.0013267272 -0.0022425097 -0.003708237 0.0012125577 0.0013416457 0.0022938733 6.939632e-05 0.0020590476 0.0013530956 -3.2839405e-05 0.0030063402 0.0007336325 -0.0023996548 0.0029061805 -7.6804485e-05 0.003374515 -0.002639848 0.0021984405 0.00049377914 -0.002452761 0.0028686398 0.0036355136 0.001357988 0.00029019907 0.0008522572 0.0019540107 -0.0011223697 0.0014777273 0.0013478351 0.0037291418 0.0004745741 -0.0027891276 -0.0014147336 0.0026572403 -0.0030036212 0.0015062221 0.0011401868 0.0010697057 -0.00090023456 0.0018922876 0.00015907359 -0.0026586445 0.00055437966 0.0032533521 -0.00096966437 0.0036638165 -0.0012899921 -0.0028960092 -0.0030538645 0.0008031551 -0.0020142247 0.0023643402 0.0035970903 -0.00020158825 0.0030130812 -0.00078157434 -0.0007995638 0.0026820768 0.0028734256 -0.0035041564 -0.0027968325 0.00057233253 -0.0016277054 0.0012644245 -0.0034804707 -0.0009776733 -0.001059757 -0.0032093173 -0.0031552669 0.00033593696 0.0033779205 0.0006760651 0.0015255439 0.0036551354 -0.0015992181 -0.0029956617 -0.0023381917 -0.0005790165 -0.0007233938 -0.002272955 -0.0032009669 0.0036103101 -0.0018500432 0.0032713285 0.0030303667 0.0011212302 -0.002433546 -0.0021238893 0.0033682082 0.0032579477
9 -0.0011815361 0.00054051337 -0.0032810841 -0.0009247447 8.340274e-05 3.159234e-05 -0.0005191623 0.0018884925 0.003717663 -0.00057816587 0.00079692376 0.0030675791 0.00042413833 -0.003566589 -0.0011116178 -0.00091149507 -0.0017757738 0.002670891 -0.0018917549 0.0012899146 -0.0035931454 0.0032882004 0.003773697 -0.0036245699 -0.0014841706 0.002432864 -0.0015321376 -0.003733997 -0.0009147216 0.0019017287 0.0012794923 0.003358064 -0.0020679135 -0.0021954507 0.003645603 -0.0021320593 0.0030475794 -8.873482e-05 -0.0035465753 0.0028594083 -0.0033496316 -0.0034839916 0.0014446619 0.0030965528 -0.0027836543 -0.0020934825 0.00020811288 -0.0021687255 -0.0018404073 -0.0037150295 -0.002475483 0.00086640567 -0.0024184159 0.0008028472 0.0033639066 -0.0011777167 -0.0016610661 -0.0002455823 -0.00079928606 -0.002236322 0.00017947164 -0.00029822503 -0.0028621277 0.0016397703 0.0021175737 -0.001633532 0.0018090535 -0.00012283266 -0.0012096763 0.00033033203 0.0016158834 0.0031305314 0.0034538908 -0.0014758651 0.003092382 -0.0018461122 -0.0026600184 0.0036411649 -0.002964725 0.0022995132 0.0027552103 -0.0010003347 -0.0034258296 -0.0037456583 -0.0014155698 -0.00042458388 0.0002443159 0.0001902158 -0.0021851824 0.001471716 0.0019872657 -0.0013457749 0.0037176528 0.003600547 -0.0006677774 -0.0037838302 0.0021000039 0.00013568392 -0.00013404677 0.0017511802 -0.0033755063 -0.0032088372 -0.0029418117 0.00093685224 0.00076727103 6.493043e-05 -0.0018079709 0.0032381858 -0.0038704723 -0.0030307453 0.0029228104 0.00039386193 0.0034194754 -0.0013395281 -9.462181e-05 -0.002230414 -0.0032498217 0.0031845158 -0.001535909 0.0027894464 -0.0015773328 -0.0020379745 -0.001550418 0.0009665795 -0.0021759414 0.0032142128 0.00025208187 0.001558816
6 0.0010263729 -0.0009827131 0.0009040954 0.0035710426 0.0004244453 0.0012602288 0.0019164218 0.002410241 -0.0004802194 0.00041645064 0.0013087459 -0.0008002973 -0.0012053674 -0.0017766957 0.0021285976 8.228891e-05 -0.0010453193 -0.0026769317 0.0018058365 -0.0025796404 -0.0013224811 -0.002426733 -0.0010463431 -0.0032308868 0.0028678507 -0.0021472336 0.0012800337 -0.0036013708 0.00039640255 0.0033061956 0.00054243125 -0.0029762052 0.0021222949 -0.00071186107 0.001188346 0.00017540254 0.0007394851 0.0032649036 -0.0035672449 -0.003904379 -0.0017977509 0.002103361 0.0036222066 -0.0024392696 -0.0035746067 0.0012353578 0.0024371727 -0.003536486 0.0036021508 0.0030285455 -0.00022025825 0.0021411455 -0.0034705189 0.00022752053 0.0028879256 -0.002029723 -0.00023958311 -0.0018311212 0.002561079 -0.003441965 0.0037973693 0.0023352022 0.00017746248 0.00014654448 0.00040761288 -0.00314445 -0.0029013248 0.0003570527 -0.0025099635 -0.002659256 0.0021458524 -0.0006674347 -0.0021988698 0.0035666977 0.0022691223 -0.00047515036 0.0018776975 0.0035553793 -0.0009243405 0.0012068974 -0.0032961264 0.0028801595 0.0020610695 0.0012743094 0.0036704338 -0.0037469228 0.0029067139 -0.0014543931 -0.0011188084 0.00020735948 0.0025435155 0.0013438 0.0018173327 0.0024103944 -1.15369685e-05 0.0010704017 0.0012938766 -0.003844798 0.0025489416 -0.0018398882 0.002808468 -0.0016357529 0.00029078705 0.00035402048 -0.0024410281 0.002732291 -0.0008464204 0.003632907 0.0021952402 -0.0012558255 0.0027688926 0.0017618629 -0.00070719875 0.0020733324 0.00084022904 0.0034341204 0.001651554 -0.0022310766 0.00024266345 -0.00075584213 0.0008225774 -0.0019327857 0.002579335 -0.0038355077 -0.003368714 0.0010622987 0.003769947 -0.0036585082
1 -0.0038896324 -0.0038273586 0.0036816031 -0.0026890307 0.0016980418 -0.0037681803 -0.00066074467 0.0027233735 0.0031055994 0.00021649823 -0.002323368 -0.00073343003 0.0021802525 -0.0015686814 -0.0019539774 -0.0023417773 0.0022184015 -0.0016745046 0.0036707784 -0.001987003 0.0014952075 -0.0003456966 0.00072327734 0.001429104 0.00082562485 0.0010480165 0.0024157944 0.0035814797 0.0014917756 -0.0020750146 -0.0037399027 0.0022967728 -0.00028195442 0.0008494095 -0.0017007524 -0.0030120974 -0.0038014064 -0.0017513256 0.003527168 -0.0038979629 -0.0026559152 -0.002872592 0.0025060663 0.002230854 -0.0012833808 -0.0026627865 -0.0023393796 0.00039563482 0.0034882063 0.003075828 -0.0032644002 0.0033703009 -0.0013735282 0.0037652075 -0.0033381532 0.00082156714 -0.00037932183 0.0035288858 -0.0026766045 0.001726538 0.0018483624 -0.0037601623 -0.0028455344 -2.9069217e-05 -0.0028484392 0.0010235731 0.00085570425 0.0018334378 -0.0034534235 0.00012153197 -5.5763845e-05 -0.0035003426 0.0035625028 -0.00013771739 -0.0026049535 -0.0022624684 0.0028881247 -0.0024284702 0.0021262108 -0.0036410338 -0.0014556233 -0.0033004521 0.00021496319 -0.0029302777 -0.0016890176 -0.003133391 -0.0013789034 -0.00056755106 0.002760116 0.0008158841 0.0005843521 0.0004517908 0.00051858486 -0.00024683154 -0.00071620464 -0.00086896506 -0.0004206634 -0.0026408478 0.00308259 0.0014705929 -0.0024780422 0.0026749363 0.0022228872 -0.0010172104 0.0022098524 0.0034902967 0.002795723 0.0021096566 -0.0016462001 0.0009348955 -0.0014855497 -0.0020157895 0.0009961189 0.0034092613 -0.0017567492 -0.0019170083 0.0029491931 0.0018510845 -0.0030112292 -0.0019177557 -0.0004769392 0.0023032113 -0.0032043848 0.00046678988 -0.0012541193 -0.0009702957 -0.0010932384 0.0008652062
3 -0.0034698865 0.0007965783 0.0035669296 0.00064697623 0.0011060018 -0.0002648352 0.0020757434 -3.2811306e-05 -0.0036882008 -0.001421832 0.0016864879 -0.0029054137 -0.0037898154 -0.0037389894 -0.0017260751 -0.0026845809 0.0036691912 -0.0028144645 -0.00065064523 -0.0021612947 -0.0031737546 0.0014628676 -0.0008993953 0.0037090394 0.0037237294 -0.0016101183 -5.0293056e-05 0.0027146572 0.0039059976 0.0035168473 -0.0020261072 -0.0023223686 -0.0033910554 0.003511478 -0.0010147387 -0.003006818 0.001135572 0.0023700865 0.0012449806 0.0021148846 0.0007114092 -0.0037979158 0.0009697887 0.0032701003 -0.0018099897 -0.00073110155 0.002638562 -0.0026164001 -0.0038932455 0.0027144146 0.003389451 -0.0014323936 -0.0037107917 0.0010034774 -0.0024279796 -0.0023584268 -0.001916308 0.0010625098 -0.0017880168 0.0036149188 -0.0035544492 0.0017970161 -0.0010625933 0.003581061 0.00019841151 -0.0025560043 0.0034896957 0.002547316 0.001057962 -0.002896116 0.002496947 0.00081942015 -0.0023096462 0.002558557 0.0016112891 -0.0015780733 0.0035564245 -0.0009688952 0.0035748482 -0.000861693 -0.00032770837 0.002662017 -0.0012689416 -0.001993922 0.0014560511 0.001604537 -0.00030250126 0.0011555994 -0.0024437068 -0.0009222122 -0.0016517979 0.0019296623 -0.0011430767 0.0006420393 -0.0033123055 0.0026203475 -0.003426407 0.00315752 0.0033700317 0.00029450396 -0.0034402336 0.000985367 -0.0033761251 -0.0010772246 0.0017429269 0.003894882 -0.0004692794 -0.00045764213 0.0028956817 -0.0020092777 0.0025233456 -1.9354255e-05 0.00075780257 0.00069122284 0.00085393235 0.0018618022 -0.0008733527 0.0021588295 0.003176199 0.0003657804 -0.0018818686 -0.0033701072 -0.0014083752 -0.0007353824 -0.0026418818 0.000673896 0.001167504 0.0016395986
2 0.0030049018 -0.00051868265 -0.0006970097 -0.0010581912 -0.0010692388 0.00024677988 0.0015576966 0.002282994 -0.0034797685 -0.0004610483 -0.0012128032 0.0020479427 0.0020523423 -0.0024346095 -0.000663019 -0.0028805733 -0.001997586 0.0021005971 -0.0005856606 -0.00028866102 0.0007499127 0.00088394503 0.0028379564 -0.00034815865 -0.0029180383 -0.00076197716 -0.0017265348 0.000467316 0.0025057965 0.0014256563 0.002807158 -0.001499014 -0.00319892 0.0032087998 -0.0032541952 0.0023191124 0.0005278598 -0.002890658 0.0015655822 -0.0010807045 0.0017362207 0.0026291376 0.0017683343 -0.00066609186 -0.0023715561 -0.00079516077 -0.002064158 -0.0011478662 0.001493263 -0.0019899278 0.00079336425 -0.0032401937 0.0016994325 0.0037200116 -0.0038241216 -9.565723e-05 0.0023496824 0.0033338985 -0.0022338587 0.0035437038 -0.0022732094 0.0020574904 -0.0005785156 -0.0028731332 -0.0011126517 0.0031577626 -0.00090824673 -0.0015717326 -0.003430335 -0.0015026876 -0.0010259718 -0.00071705313 0.0032109194 -0.0005491623 -0.0014629111 0.0025837098 0.0013949968 -0.0016557921 0.0009221958 -0.0011139954 -0.0019832293 -0.002057805 -0.0032903308 0.00055113266 0.0025170173 0.0031332965 -0.00078286155 -0.0004296104 0.0032523798 -0.0024868087 0.0018537408 0.0029596172 2.8370318e-05 -0.0037883366 -0.0037626189 0.0009843296 -0.0014946489 -0.0018490849 -0.0024510478 0.0028830695 0.002656429 -0.0021981366 0.00171095 -0.0037679495 -0.00040377548 -0.0032704477 0.0038722504 0.0035393145 -0.002771619 0.00064994034 -0.002732337 0.0016245327 0.001637605 -0.0015351877 -0.0027788265 -0.00079530355 0.0011205424 0.0015832379 -0.0028303752 -0.0012343779 -0.001211102 -0.0018738963 0.001284134 -0.0034236147 0.0015662585 0.0016547864 0.0037674757 0.00029166468
5 0.00057163544 -0.003390991 -0.0038883083 -8.701874e-05 0.002911353 -0.0011982287 0.0034062937 -0.0033706862 0.003644129 -0.002639669 0.0029826893 0.0028895969 -0.002815927 0.0009602579 0.002100004 -0.0033461817 -0.001964933 -0.0030856675 -0.0011958098 0.0019655048 0.0021111474 0.0031448815 -0.0035351105 0.0038938709 0.0013823423 -0.0027687598 -0.0006013561 -0.003253576 -0.0011462322 -0.0008503182 -0.0021720142 -0.0012617848 -0.0021796715 0.0015032142 0.0023158793 -0.0028993243 0.0008779633 0.0015678186 -0.000939783 0.00021140612 0.00340744 -0.0006158425 -0.0020912047 -0.00032580047 -0.002452533 0.00037275493 0.0005299488 -0.00084658054 -9.155442e-05 -0.0018496903 -0.0007794175 0.0031736142 0.0032082053 -0.0035397026 0.002311827 -0.0022666333 0.0022144986 -0.0012403385 0.0026229285 -0.0036891827 -0.0014951697 -0.0024557798 0.0023576475 0.002755594 -0.0029063362 0.0004322081 0.003109267 -0.0008272425 0.0015196702 -0.002789139 -0.001821278 0.0005477291 -0.0025342652 -0.0031674167 0.0009158001 -0.0029178688 -0.0022805163 -0.0031444232 -0.0031832433 -0.0034126223 -0.0026515836 0.00040460136 -0.0014837445 -2.7977683e-06 -0.0022551573 -0.0037609264 0.0022680254 0.0035298779 0.0018486516 3.1973563e-05 0.0028932928 -0.0013399499 0.0015633703 0.0012081389 -0.0027490135 0.0010504529 -0.0031661456 -0.0024746037 0.0034449776 0.0036379464 -0.0038388504 0.0001190417 -0.0018906617 -0.0037269727 -0.0036007399 -0.0012299729 0.0013154533 -9.3044866e-05 -0.0030882393 -0.0011742405 -0.002394855 0.0002286815 0.0012067882 -0.0027349785 -0.0023084006 0.0033405675 0.0034959235 0.0005582723 0.0033125079 0.0014470499 -0.0003766544 0.0016204583 0.00086670724 -0.0036852174 -0.003226676 0.0019620727 -0.0017153262 0.003760603
4 -0.000121333476 0.0037315972 6.850182e-05 0.0016393523 0.0023809392 -0.002574498 -0.0034615018 0.003868069 0.0005502921 -0.0021960447 0.0034587323 0.00093437184 0.0026861967 -0.0010116358 -0.0010267171 -0.0008772077 0.00081661955 -0.0023961272 0.0011377999 0.0023456926 0.0013525131 -0.00079965487 -0.002372995 -0.0014553887 0.0018828232 0.0008745494 -0.0025234064 0.0020433364 0.0032778305 -0.0015945332 -0.001937911 -0.002584215 -0.0005093918 -0.00045029426 -0.0016700688 -0.0010987198 0.002446369 0.0022629357 0.0014177207 0.0019282389 0.00124915 -0.0031998327 0.0032527586 0.0034173229 0.001657164 -0.0031965522 -0.00092114613 -0.0031464242 -0.002584345 -0.0024657915 0.0028655431 -0.0030695472 0.0008382656 0.0014140907 -0.001993072 0.0014357159 0.0019030317 0.00052624143 0.0016600596 -0.001607301 0.0037683398 -0.002052576 0.0015014677 0.0003343592 0.0025550125 0.0036016922 -0.0038282548 0.0017425172 -0.00011085884 -0.0014008519 0.0005201549 0.0012816855 0.0026888766 -0.0035341368 0.0020654956 -0.0011322137 0.0035518205 0.0021537663 -0.0016650696 0.0030989088 0.0012931672 -0.0038654876 -0.00078185095 0.0011290766 0.0021385103 -0.00070901134 0.0038036802 -0.0021503018 0.0027654534 0.0012874028 -0.0028599803 -0.00075453054 -0.0035677627 -0.0013747643 -0.0012192146 0.0014633996 -0.0032213158 -0.0019507277 0.00034730262 -0.00026418682 -0.0025745681 0.0010350278 0.0038745117 0.003280777 -0.0031673582 0.0019079368 -0.0024233726 0.0014766325 -0.001556247 -0.0011082048 0.0032159162 -0.0011392208 0.00030607672 0.0011362783 -1.8399043e-05 0.002657027 -0.00015267429 0.0013563611 -0.00058882026 -0.00014500644 0.0019681726 0.00096759165 -0.003618772 -0.00389522 -0.0035916606 0.0009631206 0.0034800346 0.002390106
8 0.0005469344 -0.0034851893 0.0020799774 0.00085331744 -0.0025582088 0.001374523 0.0019591404 0.0007629775 -0.00021169959 0.0028947117 -0.0017247916 1.027652e-05 -0.0024626274 6.749291e-05 0.0030394353 -0.002485529 0.0021423495 0.00016374071 0.0036626065 0.002416306 -0.0011884773 -0.000146561 -0.0006082479 -0.0035923335 0.0011294789 0.0038827704 -0.00021044801 0.0027334264 -0.0017075704 0.002336991 -0.0009626435 0.00046649924 0.00094012194 0.0023461368 -0.0012473 -0.0012031472 0.0033335038 -0.000908546 0.003281793 0.0036046675 -0.0011092811 0.0001749523 -0.0027326362 0.0027712043 0.0010082652 0.0027737624 -0.0025402426 -0.00056256563 -0.0015774834 0.0020736482 -0.0020700977 -0.0022826847 0.0038848873 0.0023443322 -0.0029346128 6.990882e-05 -0.0035742477 -0.0012529186 -0.0019216088 -0.0022869564 -0.0022508493 -0.003215459 0.0007786989 0.0011957648 0.0019149757 -0.0027737478 0.0030905907 -0.0015016587 -0.00025622884 -0.0028166943 -0.002811734 -0.0015828977 -0.0020307542 -8.758712e-05 -0.0006771846 0.0012793278 -0.002453016 -0.0008390633 -0.0005959041 -0.0003527763 0.0023135247 -0.003375882 -0.002393509 0.0017810069 -0.0032676265 0.003749709 0.0026789892 0.00081262615 0.0010986573 -0.0026978827 0.0018373878 -0.0023895828 -0.0006104485 -0.00027185073 -0.0012002705 -0.0027374867 -0.0011867789 -0.003494538 -0.002517669 -0.003118832 0.0029446892 -0.0033048878 -0.00382027 -0.0012997787 0.0030273867 -0.0030769063 0.0019821394 -0.0038789918 -0.0017189085 -0.0022862004 -0.0037896927 0.0018884636 0.001983948 -0.000275322 -0.0037440436 0.003161572 -0.0015945155 -0.0011297571 -0.0021065443 -0.00014516294 -0.0020617414 -0.0032391597 0.0031679168 0.0007649755 0.0019875893 -0.0036310814 0.0025925143 -0.002436019
